-0.036943454 0.076946616 -0.0065699527 -0.006004245 -0.015876954 -0.008414983 0.009775306 -0.04834215 -0.004861787 0.07428063 0.056606304 0.06838924 0.08967415 -0.027884273 -0.019242803 -0.031069117 0.033113576 0.11943335 0.0062300074 -0.07450952 -0.047812875 -0.035578646 0.014513311 0.012701671 -0.017104972 0.08131813 0.07063429 -0.039556857 -0.029102342 -0.009657765 0.05187084 0.027639236 -0.028193073 0.052453402 0.10351619 0.014325238 -0.04844412 0.06689398 -0.053463854 0.009401671 0.06573274 0.003599513 0.025937334 -0.015757415 -0.03420666 0.10504099 -0.021528834 0.11390218 0.061695315 -0.006004167 -0.011269441 0.09569752 -0.030794172 0.06662441 0.08990875 -0.017291605 -0.029469343 -0.017063444 0.006428591 -0.01404795 0.068609715 -0.00854653 0.15428367 0.0010853854 0.029329153 -0.02604982 -0.0069643767 0.035778675 -0.011179448 -0.006003851 0.028817099 -0.025617411 0.0388639 0.015299659 -0.02437965 -0.011960688 -0.0141169885 -0.0062240004 0.11697258 0.10962446 0.1205427 -0.006039811 0.13306078 -0.006222058 0.15263747 -0.026913539 0.12397557 -0.0077507105 0.055332467 -0.028262936 0.11022019 0.031276796 0.030393947 -0.043491416 0.049680643 0.033736438 -0.017589668 -0.0055710827 0.10897323 0.07396914 -0.058006562 -0.0060047545 -0.013877935 0.0739995 0.014751438 0.02600573 -0.008069505 -0.0032968842 -0.0060049887 -0.0039096177 -0.05975133 -0.0080466075 -0.0060847946 -0.026177641 -0.02854907 -0.076233536 0.04275591 -0.015201277 0.022898229 0.03601173 -0.00018498689 0.060016792 -0.028203147 0.059540104 0.12060721 0.056398973 0.05389169 0.039336268 